{
  "config": "bearing_cwru",
  "description": "CWRU Bearing Fault Detection \u2014 4-class (Normal, Inner Race, Ball, Outer Race)",
  "model": "LogisticRegression",
  "n_features": 8,
  "n_classes": 4,
  "class_names": [
    "Normal",
    "Inner Race",
    "Ball",
    "Outer Race"
  ],
  "feature_names": [
    "band1_env",
    "band2_env",
    "band3_env",
    "band4_env",
    "band5_env",
    "broadband_rms",
    "crest_factor",
    "kurtosis"
  ],
  "feature_bands_hz": [
    [
      100,
      500
    ],
    [
      500,
      1500
    ],
    [
      1500,
      3000
    ],
    [
      3000,
      4500
    ],
    [
      4500,
      5900
    ]
  ],
  "float_weights": [
    [
      5.089043305026224,
      0.9906119918615837,
      -4.7881878789195165,
      -10.005611442761865,
      -11.0065057664823,
      -4.417722012302205,
      -6.245837986503911,
      -1.7532916451661102
    ],
    [
      -7.357104918736376,
      4.522864531553778,
      13.553062621553558,
      -0.5781491953090827,
      1.4293592453683528,
      -3.038949003420756,
      3.6530675533689885,
      6.353432375675681
    ],
    [
      -1.2400836149308538,
      -2.2543676546128704,
      4.717988140001198,
      9.183626259638576,
      -8.653420778556086,
      -2.245024067080344,
      4.149433026441992,
      -4.466402818210415
    ],
    [
      3.5081452286409744,
      -3.2591088688024925,
      -13.482862882635175,
      1.4001343784323674,
      18.23056729967004,
      9.701695082803333,
      -1.556662593307075,
      -0.13373791229916945
    ]
  ],
  "float_biases": [
    3.6000381469414564,
    -2.7980407910656564,
    1.5848294806022944,
    -2.3868268364781464
  ],
  "quantized_weights": [
    [
      5.545195226747953,
      1.3167378691072589,
      -5.025948167353784,
      -9.254405524994478,
      -11.368634203814826,
      -5.025948167353784,
      -7.140176846174132,
      -0.7974908097130893
    ],
    [
      -7.140176846174132,
      5.545195226747953,
      14.002109942029346,
      -0.7974908097130893,
      1.3167378691072589,
      -2.9117194885334357,
      3.430966547927607,
      5.545195226747953
    ],
    [
      -0.7974908097130893,
      -2.9117194885334357,
      5.545195226747953,
      9.77365258438865,
      -9.254405524994478,
      -2.9117194885334357,
      3.430966547927607,
      -5.025948167353784
    ],
    [
      3.430966547927607,
      -2.9117194885334357,
      -13.482862882635175,
      1.3167378691072589,
      18.230567299670042,
      9.77365258438865,
      -0.7974908097130893,
      -0.7974908097130893
    ]
  ],
  "quantized_biases": [
    3.6000381469414564,
    -2.7980407910656564,
    1.4673451676057527,
    -2.3715021951985156
  ],
  "quantized_indices": [
    [
      9,
      7,
      4,
      2,
      1,
      4,
      3,
      6
    ],
    [
      3,
      9,
      13,
      6,
      7,
      5,
      8,
      9
    ],
    [
      6,
      5,
      9,
      11,
      2,
      5,
      8,
      4
    ],
    [
      8,
      5,
      0,
      7,
      15,
      11,
      6,
      6
    ]
  ],
  "bias_indices": [
    15,
    0,
    10,
    1
  ],
  "quantization": {
    "n_bits": 4,
    "w_min": -13.482862882635175,
    "w_max": 18.23056729967004,
    "w_scale": 2.1142286788203477,
    "b_min": -2.7980407910656564,
    "b_max": 3.6000381469414564,
    "b_scale": 0.4265385958671409,
    "c_unit_fF": 10
  },
  "normalization": {
    "min": [
      0.014238041849429839,
      0.01989378695506635,
      0.017209901153527288,
      0.0031741359833578914,
      0.0016776903261547004,
      0.06308350208082568,
      3.0247169783189385,
      -0.45650994195967254
    ],
    "max": [
      0.06444225614171288,
      0.10413858243422658,
      0.2586702733197766,
      0.35776012620267195,
      0.09495693665549074,
      0.6977720542398086,
      17.055699812777927,
      51.205953196097695
    ],
    "scale": [
      19.91864655381553,
      11.870169478272064,
      4.141466324385038,
      2.820190384232306,
      10.720498281786643,
      1.5755759208171607,
      0.0712708448009842,
      0.019356413520735635
    ]
  },
  "accuracy": {
    "train_float": 0.9771428571428571,
    "val_float": 0.9866666666666667,
    "test_float": 0.9933333333333333,
    "test_quantized": 0.98,
    "quantization_loss": 0.013333333333333308,
    "test_noisy_2pct": 0.9733333333333334
  },
  "hardware_mapping": {
    "pga_gain": "16x",
    "filter_bands_hz": [
      [
        100,
        500
      ],
      [
        500,
        1500
      ],
      [
        1500,
        3000
      ],
      [
        3000,
        4500
      ],
      [
        4500,
        5900
      ]
    ],
    "envelope_lpf_hz": 10,
    "n_capacitors": 32,
    "max_cap_fF": 150,
    "total_cap_area_um2_est": 4.8
  }
}