{
  "config": "pump_cavitation",
  "description": "Centrifugal Pump Monitoring \u2014 4-class (Normal, Cavitation, Impeller Damage, Bearing Wear)",
  "model": "LogisticRegression",
  "n_features": 8,
  "n_classes": 4,
  "class_names": [
    "Normal",
    "Cavitation",
    "Impeller Damage",
    "Bearing Wear"
  ],
  "feature_names": [
    "band1_env",
    "band2_env",
    "band3_env",
    "band4_env",
    "band5_env",
    "broadband_rms",
    "crest_factor",
    "kurtosis"
  ],
  "feature_bands_hz": [
    [
      10,
      200
    ],
    [
      200,
      800
    ],
    [
      800,
      2500
    ],
    [
      2500,
      4500
    ],
    [
      4500,
      5900
    ]
  ],
  "float_weights": [
    [
      -0.47409464915412464,
      -0.35105503661310006,
      -0.3738390432146441,
      -0.33280134657152066,
      -0.5308265018730128,
      -0.662002424269306,
      -0.1436543487631705,
      0.19140613902392903
    ],
    [
      0.3148971121040241,
      0.7248383944375857,
      -0.21389639191462032,
      -0.20795943153972096,
      0.30919022598586254,
      0.1594275296314943,
      0.0441425778023593,
      0.00536404284743809
    ],
    [
      0.0339974931645184,
      -0.0892045495906802,
      0.7740542275920717,
      -0.2323936207490778,
      -0.05035930425528044,
      0.30102559464190254,
      0.030354984706541424,
      -0.12967448883524546
    ],
    [
      0.12520004388558006,
      -0.2845788082338144,
      -0.18631879246280392,
      0.7731543988603183,
      0.27199558014243463,
      0.20154929999591067,
      0.06915678625426926,
      -0.06709569303611995
    ]
  ],
  "float_biases": [
    1.1494325942967816,
    -0.517223933513605,
    -0.2528230329871468,
    -0.3793856277960271
  ],
  "quantized_weights": [
    [
      -0.47052820402112233,
      -0.37479109389703047,
      -0.37479109389703047,
      -0.37479109389703047,
      -0.5662653141452142,
      -0.662002424269306,
      -0.18331687364884686,
      0.19963156684752048
    ],
    [
      0.2953686769716123,
      0.6783171174679797,
      -0.18331687364884686,
      -0.18331687364884686,
      0.2953686769716123,
      0.19963156684752048,
      0.008157346599336868,
      0.008157346599336868
    ],
    [
      0.008157346599336868,
      -0.08757976352475494,
      0.7740542275920715,
      -0.27905398377293866,
      -0.08757976352475494,
      0.2953686769716123,
      0.008157346599336868,
      -0.08757976352475494
    ],
    [
      0.10389445672342867,
      -0.27905398377293866,
      -0.18331687364884686,
      0.7740542275920715,
      0.2953686769716123,
      0.19963156684752048,
      0.10389445672342867,
      -0.08757976352475494
    ]
  ],
  "quantized_biases": [
    1.1494325942967816,
    -0.517223933513605,
    -0.29500306313888675,
    -0.4061134983262459
  ],
  "quantized_indices": [
    [
      2,
      3,
      3,
      3,
      1,
      0,
      5,
      9
    ],
    [
      10,
      14,
      5,
      5,
      10,
      9,
      7,
      7
    ],
    [
      7,
      6,
      15,
      4,
      6,
      10,
      7,
      6
    ],
    [
      8,
      4,
      5,
      15,
      10,
      9,
      8,
      6
    ]
  ],
  "bias_indices": [
    15,
    0,
    2,
    1
  ],
  "quantization": {
    "n_bits": 4,
    "w_min": -0.662002424269306,
    "w_max": 0.7740542275920717,
    "w_scale": 0.09573711012409183,
    "b_min": -0.517223933513605,
    "b_max": 1.1494325942967816,
    "b_scale": 0.11111043518735911,
    "c_unit_fF": 10
  },
  "normalization": {
    "min": [
      0.34372614191686157,
      0.27652347297590585,
      0.3136122411352578,
      0.3214312564428598,
      0.32163529314629347,
      0.8786423553037612,
      2.6054797449113694,
      -0.9386940765533298
    ],
    "max": [
      1.084179152449077,
      3.170214743372555,
      3.5157899246854254,
      3.354236485483852,
      1.205928135539381,
      4.595395698739442,
      10.264337622108433,
      0.5943523701433477
    ],
    "scale": [
      1.3505245920753703,
      0.345579367858039,
      0.3122874802160657,
      0.3297277353733037,
      1.1308471041038668,
      0.2690520213740154,
      0.13056777081310367,
      0.6522959576043791
    ]
  },
  "accuracy": {
    "train_float": 1.0,
    "val_float": 1.0,
    "test_float": 1.0,
    "test_quantized": 1.0,
    "quantization_loss": 0.0,
    "test_noisy_2pct": 1.0
  },
  "hardware_mapping": {
    "pga_gain": "4x",
    "filter_bands_hz": [
      [
        10,
        200
      ],
      [
        200,
        800
      ],
      [
        800,
        2500
      ],
      [
        2500,
        4500
      ],
      [
        4500,
        5900
      ]
    ],
    "envelope_lpf_hz": 5,
    "n_capacitors": 32,
    "max_cap_fF": 150,
    "total_cap_area_um2_est": 4.8
  }
}