{
  "config": "motor_stator",
  "description": "Induction Motor Stator Fault Detection \u2014 4-class (Normal, Inter-turn Short, Broken Bar, Eccentricity)",
  "model": "LogisticRegression",
  "n_features": 8,
  "n_classes": 4,
  "class_names": [
    "Normal",
    "Inter-turn Short",
    "Broken Bar",
    "Eccentricity"
  ],
  "feature_names": [
    "band1_env",
    "band2_env",
    "band3_env",
    "band4_env",
    "band5_env",
    "broadband_rms",
    "crest_factor",
    "kurtosis"
  ],
  "feature_bands_hz": [
    [
      25,
      150
    ],
    [
      150,
      500
    ],
    [
      500,
      1500
    ],
    [
      1500,
      3500
    ],
    [
      3500,
      5900
    ]
  ],
  "float_weights": [
    [
      -0.4758275814722451,
      -0.36283224104875456,
      -0.3770071816039166,
      -0.33489447448926185,
      -0.533317177599323,
      -0.6590085180091959,
      -0.1525095403789762,
      0.12438961840854704
    ],
    [
      0.3245295802101144,
      0.7371474861114115,
      -0.19464871959785388,
      -0.2169429210134489,
      0.2728426505965377,
      0.15960420005441509,
      0.03211879291490263,
      0.00631002862694503
    ],
    [
      0.00862861124802618,
      -0.09527516493987208,
      0.7754945308273038,
      -0.2189895319756848,
      -0.0697913090231638,
      0.28600535702594526,
      0.08682090589843096,
      -0.08164272206651679
    ],
    [
      0.14266939001410633,
      -0.2790400801227866,
      -0.20383862962553273,
      0.7708269274783971,
      0.33026583602594894,
      0.21339896092883665,
      0.03356984156564214,
      -0.049056924968975256
    ]
  ],
  "float_biases": [
    1.187118537411321,
    -0.5125589238307485,
    -0.23916439009161633,
    -0.4353952234889556
  ],
  "quantized_weights": [
    [
      -0.467741444830996,
      -0.372107908241896,
      -0.372107908241896,
      -0.372107908241896,
      -0.5633749814200959,
      -0.6590085180091959,
      -0.18084083506369608,
      0.10605977470360384
    ],
    [
      0.29732684788180375,
      0.7754945308273037,
      -0.18084083506369608,
      -0.18084083506369608,
      0.29732684788180375,
      0.20169331129270385,
      0.010426238114503827,
      0.010426238114503827
    ],
    [
      0.010426238114503827,
      -0.08520729847459607,
      0.7754945308273037,
      -0.18084083506369608,
      -0.08520729847459607,
      0.29732684788180375,
      0.10605977470360384,
      -0.08520729847459607
    ],
    [
      0.10605977470360384,
      -0.27647437165279604,
      -0.18084083506369608,
      0.7754945308273037,
      0.29732684788180375,
      0.20169331129270385,
      0.010426238114503827,
      -0.08520729847459607
    ]
  ],
  "quantized_biases": [
    1.1871185374113207,
    -0.5125589238307485,
    -0.28593526233180594,
    -0.39924709308127726
  ],
  "quantized_indices": [
    [
      2,
      3,
      3,
      3,
      1,
      0,
      5,
      8
    ],
    [
      10,
      15,
      5,
      5,
      10,
      9,
      7,
      7
    ],
    [
      7,
      6,
      15,
      5,
      6,
      10,
      8,
      6
    ],
    [
      8,
      4,
      5,
      15,
      10,
      9,
      7,
      6
    ]
  ],
  "bias_indices": [
    15,
    0,
    2,
    1
  ],
  "quantization": {
    "n_bits": 4,
    "w_min": -0.6590085180091959,
    "w_max": 0.7754945308273038,
    "w_scale": 0.09563353658909997,
    "b_min": -0.5125589238307485,
    "b_max": 1.187118537411321,
    "b_scale": 0.11331183074947129,
    "c_unit_fF": 10
  },
  "normalization": {
    "min": [
      0.32741891213177,
      0.2658246640248496,
      0.29434681080313796,
      0.31056200694757574,
      0.3153379174665584,
      0.8613872049788814,
      2.599195243426374,
      -0.9389581182788893
    ],
    "max": [
      1.0418912820729838,
      3.011248863055972,
      3.3852483591615594,
      3.243621345384385,
      1.2047899529035284,
      4.625281202903639,
      10.083861202607702,
      1.0082793931236314
    ],
    "scale": [
      1.3996342504921209,
      0.36424243668898465,
      0.32353020125506754,
      0.3409409372989214,
      1.1242877189085525,
      0.26568229619414235,
      0.13360649699714588,
      0.5135480362021879
    ]
  },
  "accuracy": {
    "train_float": 1.0,
    "val_float": 1.0,
    "test_float": 1.0,
    "test_quantized": 1.0,
    "quantization_loss": 0.0,
    "test_noisy_2pct": 1.0
  },
  "hardware_mapping": {
    "pga_gain": "4x",
    "filter_bands_hz": [
      [
        25,
        150
      ],
      [
        150,
        500
      ],
      [
        500,
        1500
      ],
      [
        1500,
        3500
      ],
      [
        3500,
        5900
      ]
    ],
    "envelope_lpf_hz": 5,
    "n_capacitors": 32,
    "max_cap_fF": 150,
    "total_cap_area_um2_est": 4.8
  }
}