{
  "config": "gearbox",
  "description": "Gearbox Fault Detection \u2014 4-class (Normal, Tooth Crack, Tooth Wear, Shaft Misalignment)",
  "model": "LogisticRegression",
  "n_features": 8,
  "n_classes": 4,
  "class_names": [
    "Normal",
    "Tooth Crack",
    "Tooth Wear",
    "Shaft Misalignment"
  ],
  "feature_names": [
    "band1_env",
    "band2_env",
    "band3_env",
    "band4_env",
    "band5_env",
    "broadband_rms",
    "crest_factor",
    "kurtosis"
  ],
  "feature_bands_hz": [
    [
      20,
      300
    ],
    [
      300,
      1000
    ],
    [
      1000,
      2500
    ],
    [
      2500,
      4500
    ],
    [
      4500,
      5900
    ]
  ],
  "float_weights": [
    [
      -0.46187715649996103,
      -0.36338553468222917,
      -0.37428984121711284,
      -0.34199952546214357,
      -0.5351369905001533,
      -0.6540746946980284,
      -0.17457934452222057,
      0.15252869907240652
    ],
    [
      0.3581913928422386,
      0.7239659848486045,
      -0.19905194155019412,
      -0.2188170962627493,
      0.3042111329580758,
      0.1541129003111226,
      0.013117214245790213,
      -0.0003869283568813447
    ],
    [
      -0.010503914001012664,
      -0.08076941169083714,
      0.770775497668857,
      -0.21704512375931867,
      -0.05376790560467919,
      0.28694082546920463,
      0.12811882066081035,
      -0.07231442120581137
    ],
    [
      0.11418967765873446,
      -0.27981103847553385,
      -0.19743371490154746,
      0.7778617454842163,
      0.2846937631467585,
      0.21302096891770408,
      0.033343309615618946,
      -0.07982734950971346
    ]
  ],
  "float_biases": [
    1.1691351055134165,
    -0.5348502008894327,
    -0.25182039251494287,
    -0.3824645121090409
  ],
  "quantized_weights": [
    [
      -0.4631498360070624,
      -0.36768740666157945,
      -0.36768740666157945,
      -0.36768740666157945,
      -0.5586122653525454,
      -0.6540746946980284,
      -0.17676254797061347,
      0.10962474006583545
    ],
    [
      0.3960120281022844,
      0.6823993161387333,
      -0.17676254797061347,
      -0.17676254797061347,
      0.30054959875680143,
      0.10962474006583545,
      0.014162310720352456,
      0.014162310720352456
    ],
    [
      0.014162310720352456,
      -0.08130011862513054,
      0.7778617454842164,
      -0.17676254797061347,
      -0.08130011862513054,
      0.30054959875680143,
      0.10962474006583545,
      -0.08130011862513054
    ],
    [
      0.10962474006583545,
      -0.27222497731609646,
      -0.17676254797061347,
      0.7778617454842164,
      0.30054959875680143,
      0.20508716941131844,
      0.014162310720352456,
      -0.08130011862513054
    ]
  ],
  "quantized_biases": [
    1.1691351055134165,
    -0.5348502008894327,
    -0.3076521600357195,
    -0.4212511804625761
  ],
  "quantized_indices": [
    [
      2,
      3,
      3,
      3,
      1,
      0,
      5,
      8
    ],
    [
      11,
      14,
      5,
      5,
      10,
      8,
      7,
      7
    ],
    [
      7,
      6,
      15,
      5,
      6,
      10,
      8,
      6
    ],
    [
      8,
      4,
      5,
      15,
      10,
      9,
      7,
      6
    ]
  ],
  "bias_indices": [
    15,
    0,
    2,
    1
  ],
  "quantization": {
    "n_bits": 4,
    "w_min": -0.6540746946980284,
    "w_max": 0.7778617454842163,
    "w_scale": 0.09546242934548298,
    "b_min": -0.5348502008894327,
    "b_max": 1.1691351055134165,
    "b_scale": 0.11359902042685661,
    "c_unit_fF": 10
  },
  "normalization": {
    "min": [
      0.3332643028899556,
      0.2741202322992268,
      0.3030443739195042,
      0.3192576140735849,
      0.31929475905411686,
      0.8586716692690965,
      2.5769868157846196,
      -0.9224128378372352
    ],
    "max": [
      1.1262072159393794,
      3.0953198072781363,
      3.5004157379236287,
      3.314623971920116,
      1.1953464482040153,
      4.660568433613617,
      9.351883933847658,
      0.6191815817604391
    ],
    "scale": [
      1.261124834515887,
      0.3544591488205778,
      0.3127569137754716,
      0.33384897890050863,
      1.1414851570806037,
      0.26302660539821593,
      0.1476037174548125,
      0.6486790476712936
    ]
  },
  "accuracy": {
    "train_float": 1.0,
    "val_float": 1.0,
    "test_float": 1.0,
    "test_quantized": 1.0,
    "quantization_loss": 0.0,
    "test_noisy_2pct": 1.0
  },
  "hardware_mapping": {
    "pga_gain": "16x",
    "filter_bands_hz": [
      [
        20,
        300
      ],
      [
        300,
        1000
      ],
      [
        1000,
        2500
      ],
      [
        2500,
        4500
      ],
      [
        4500,
        5900
      ]
    ],
    "envelope_lpf_hz": 8,
    "n_capacitors": 32,
    "max_cap_fF": 150,
    "total_cap_area_um2_est": 4.8
  }
}